{
  "schema_version": "v1",
  "backend": "mace",
  "backend_version": "0.3.14",
  "source": {
    "path": "../raw/mace-mh-1.model",
    "format": "model",
    "sha256": "a522eb7f59c7879963d41586528f4980baf33e086c94aa92e3eafdeccad3be47"
  },
  "weights": {
    "path": "mace-mh-1.state_dict.pt",
    "format": "torch",
    "sha256": "07dbc084085c7f16f039e3b0a2d3a6a838fa9e2503726a88381f0a2af461bb6f"
  },
  "rebuildable": true,
  "io": {
    "energy_unit": "eV",
    "force_unit": "eV/Angstrom",
    "energy_is_total": true
  },
  "embedding": {
    "node_embed_layer": "products[-1]",
    "graph_pool": "mean"
  },
  "config": {
    "model_type": "ScaleShiftMACE",
    "z_table": [
      1,
      2,
      3,
      4,
      5,
      6,
      7,
      8,
      9,
      10,
      11,
      12,
      13,
      14,
      15,
      16,
      17,
      18,
      19,
      20,
      21,
      22,
      23,
      24,
      25,
      26,
      27,
      28,
      29,
      30,
      31,
      32,
      33,
      34,
      35,
      36,
      37,
      38,
      39,
      40,
      41,
      42,
      43,
      44,
      45,
      46,
      47,
      48,
      49,
      50,
      51,
      52,
      53,
      54,
      55,
      56,
      57,
      58,
      59,
      60,
      61,
      62,
      63,
      64,
      65,
      66,
      67,
      68,
      69,
      70,
      71,
      72,
      73,
      74,
      75,
      76,
      77,
      78,
      79,
      80,
      81,
      82,
      83,
      89,
      90,
      91,
      92,
      93,
      94
    ],
    "e0_values": [
      [
        -1.122560977935791,
        -0.32636788487434387,
        -0.7757486701011658,
        -0.5550596117973328,
        -1.171956181526184,
        -2.371532678604126,
        -4.427225589752197,
        -3.220797061920166,
        -2.2466795444488525,
        -1.8758705854415894,
        -2.4791629314422607,
        -2.4600985050201416,
        -3.1361069679260254,
        -4.104173183441162,
        -5.583504676818848,
        -5.117588520050049,
        -4.808084487915039,
        -4.815481662750244,
        -5.161983489990234,
        -4.964373588562012,
        -7.375838279724121,
        -7.893481254577637,
        -9.399334907531738,
        -11.586129188537598,
        -11.621530532836914,
        -9.751237869262695,
        -8.069622993469238,
        -7.338860034942627,
        -6.9637227058410645,
        -7.442970275878906,
        -8.615310668945312,
        -10.001389503479004,
        -11.835241317749023,
        -11.787120819091797,
        -11.943187713623047,
        -12.531251907348633,
        -13.168977737426758,
        -13.30792236328125,
        -16.17721939086914,
        -16.686445236206055,
        -17.685129165649414,
        -20.436321258544922,
        -19.67893409729004,
        -18.305192947387695,
        -18.30000877380371,
        -18.779136657714844,
        -18.478647232055664,
        -19.04302978515625,
        -20.18193244934082,
        -21.36410140991211,
        -23.147706985473633,
        -23.14988899230957,
        -23.31069564819336,
        -23.80420684814453,
        -24.337032318115234,
        -25.729520797729492,
        -25.777267456054688,
        -26.708364486694336,
        -28.03128433227539,
        -30.12134552001953,
        -31.833288192749023,
        -34.206905364990234,
        -37.50571060180664,
        -37.09642028808594,
        -35.36334228515625,
        -35.18798828125,
        -34.49156188964844,
        -33.4559440612793,
        -32.87419509887695,
        -33.50674057006836,
        -33.75240707397461,
        -38.72151565551758,
        -40.4543571472168,
        -43.42146682739258,
        -45.01003646850586,
        -44.954978942871094,
        -45.21733474731445,
        -45.78349685668945,
        -47.175498962402344,
        -48.91051483154297,
        -51.09730529785156,
        -53.336814880371094,
        -56.19984817504883,
        -65.08565521240234,
        -67.2281494140625,
        -70.10833740234375,
        -74.35431671142578,
        -78.24114227294922,
        -82.93460845947266
      ],
      [
        -1.1165879964828491,
        0.0008800933137536049,
        -0.2876068651676178,
        -0.05612891912460327,
        -0.3173988461494446,
        -1.4334489107131958,
        -3.1765449047088623,
        -1.7271298170089722,
        -0.6961847543716431,
        -0.012416009791195393,
        -0.2225872427225113,
        -0.1124764084815979,
        -0.2290317714214325,
        -0.8306919932365417,
        -1.857690691947937,
        -0.9451801180839539,
        -0.29993265867233276,
        -0.08368784189224243,
        -0.2782925069332123,
        -0.12786483764648438,
        -2.184295892715454,
        -2.5936219692230225,
        -3.8524584770202637,
        -5.704832077026367,
        -5.494144916534424,
        -3.698153495788574,
        -1.9867832660675049,
        -1.1585655212402344,
        -0.9025532007217407,
        -0.3453465402126312,
        -0.4743193984031677,
        -0.9191680550575256,
        -1.7123998403549194,
        -0.7648358345031738,
        -0.24764464795589447,
        0.3214479088783264,
        -0.23010873794555664,
        -0.10231878608465195,
        -2.1595733165740967,
        -2.2353224754333496,
        -3.1388888359069824,
        -4.496382236480713,
        -3.4486913681030273,
        -2.4037227630615234,
        -1.6015199422836304,
        -1.4437735080718994,
        -0.44938924908638,
        -0.3515552580356598,
        -0.5243270993232727,
        -1.0019716024398804,
        -1.446083664894104,
        -0.6956257820129395,
        -0.21183212101459503,
        0.3052782416343689,
        -0.14951066672801971,
        -0.029907390475273132,
        -0.5342205166816711,
        -1.2908893823623657,
        -0.2791411876678467,
        -0.3164527118206024,
        -0.32473695278167725,
        -0.2834967076778412,
        -8.2378511428833,
        -10.3258638381958,
        -0.29626739025115967,
        -0.3517153859138489,
        -0.3606492578983307,
        -0.3731366693973541,
        -0.22840991616249084,
        3.1571969985961914,
        -0.3665649890899658,
        -3.546931743621826,
        -3.6008894443511963,
        -4.677267551422119,
        -4.838247776031494,
        -3.0252439975738525,
        -1.4757001399993896,
        -0.508335530757904,
        -0.3420756459236145,
        -0.2700004577636719,
        -0.4651176631450653,
        -0.9359090924263,
        -1.3564882278442383,
        -0.30802401900291443,
        -0.8450061678886414,
        -2.4491958618164062,
        -4.936776638031006,
        -7.683454513549805,
        -10.757013320922852
      ],
      [
        -13.614219665527344,
        0.0,
        0.0,
        0.0,
        0.0,
        -1030.682861328125,
        -1486.3448486328125,
        -2043.7786865234375,
        -2715.289306640625,
        0.0,
        0.0,
        0.0,
        0.0,
        0.0,
        -9287.509765625,
        -10834.5,
        -12522.654296875,
        0.0,
        0.0,
        0.0,
        0.0,
        0.0,
        0.0,
        0.0,
        0.0,
        0.0,
        0.0,
        0.0,
        0.0,
        0.0,
        0.0,
        0.0,
        0.0,
        0.0,
        -70045.265625,
        0.0,
        0.0,
        0.0,
        0.0,
        0.0,
        0.0,
        0.0,
        0.0,
        0.0,
        0.0,
        0.0,
        0.0,
        0.0,
        0.0,
        0.0,
        0.0,
        0.0,
        -8102.4853515625,
        0.0,
        0.0,
        0.0,
        0.0,
        0.0,
        0.0,
        0.0,
        0.0,
        0.0,
        0.0,
        0.0,
        0.0,
        0.0,
        0.0,
        0.0,
        0.0,
        0.0,
        0.0,
        0.0,
        0.0,
        0.0,
        0.0,
        0.0,
        0.0,
        0.0,
        0.0,
        0.0,
        0.0,
        0.0,
        0.0,
        0.0,
        0.0,
        0.0,
        0.0,
        0.0,
        0.0
      ],
      [
        -1.2344001531600952,
        0.0009675900219008327,
        -0.29754725098609924,
        -0.017816970124840736,
        -0.3135049641132355,
        -1.3183671236038208,
        -3.108470916748047,
        -1.6751911640167236,
        -0.5188204646110535,
        -0.012416009791195393,
        -0.26136475801467896,
        -0.00951015017926693,
        -0.24753804504871368,
        -0.8675192594528198,
        -1.8199739456176758,
        -0.8651533722877502,
        -0.26056888699531555,
        -0.0492597296833992,
        -0.2239924818277359,
        -0.10883040726184845,
        -2.143171548843384,
        -2.47933030128479,
        -3.7280819416046143,
        -5.568469524383545,
        -5.308926582336426,
        -3.522315502166748,
        -1.9128319025039673,
        -0.979447603225708,
        -0.5692993402481079,
        -0.13726270198822021,
        -0.31371480226516724,
        -0.7488612532615662,
        -1.65577232837677,
        -0.7873054146766663,
        -0.2221384346485138,
        -0.033587899059057236,
        -0.15440334379673004,
        -0.044750362634658813,
        -2.163808584213257,
        -2.269926071166992,
        -3.126046895980835,
        -4.63895845413208,
        -3.4283103942871094,
        -2.365697145462036,
        -1.4368305206298828,
        -1.459527611732483,
        -0.3358120024204254,
        -0.1631011962890625,
        -0.3755297064781189,
        -0.8091864585876465,
        -1.3994535207748413,
        -0.6645344495773315,
        -0.1896457076072693,
        -0.008575820364058018,
        -0.136055126786232,
        -0.03457659110426903,
        -0.4558080732822418,
        -1.330917477607727,
        -0.2967182397842407,
        -0.3039119243621826,
        -0.30898427963256836,
        -0.2547089159488678,
        -8.38001537322998,
        -10.388965606689453,
        -0.30595049262046814,
        -0.306762158870697,
        -0.30874666571617126,
        -0.3161092698574066,
        -0.25190040469169617,
        -0.06431414186954498,
        -0.3199758529663086,
        -3.5025370121002197,
        -3.563387632369995,
        -4.6888346672058105,
        -4.678189277648926,
        -2.9074954986572266,
        -1.4943701028823853,
        -0.4935627281665802,
        -0.273804634809494,
        -0.15604086220264435,
        -0.30975252389907837,
        -0.7530611157417297,
        -1.3468382358551025,
        -0.2682715058326721,
        -0.9081742763519287,
        -2.476531982421875,
        -4.904385566711426,
        -7.633789539337158,
        -10.772377014160156
      ],
      [
        -13.444050788879395,
        -78.82026672363281,
        -203.33148193359375,
        -398.9422302246094,
        -670.7548828125,
        -1029.948486328125,
        -1485.5382080078125,
        -2042.83935546875,
        -2714.25,
        0.0,
        -4415.25048828125,
        -5443.89453125,
        -6594.61376953125,
        -7873.72119140625,
        -9285.703125,
        -10832.58984375,
        -12520.650390625,
        -14354.2783203125,
        -16323.5498046875,
        -18436.474609375,
        -20696.181640625,
        -23110.53515625,
        -25682.99609375,
        -28418.37890625,
        -31317.923828125,
        -34383.42578125,
        -37623.46875,
        -41039.92578125,
        -44637.390625,
        -48417.15625,
        -52373.8828125,
        -56512.7734375,
        -60836.16015625,
        -65344.296875,
        -70041.234375,
        -74929.5625,
        -653.64990234375,
        -833.3175659179688,
        -1038.0301513671875,
        -1273.9674072265625,
        -1542.4547119140625,
        -1850.742919921875,
        -2193.91552734375,
        -2577.186767578125,
        -3004.132080078125,
        -3477.523681640625,
        -3997.326416015625,
        -4563.76318359375,
        -5171.82470703125,
        -5828.85791015625,
        -6535.6181640625,
        -7291.546875,
        -8099.8701171875,
        -8962.1787109375,
        -546.0409545898438,
        -690.6113891601562,
        -854.1123046875,
        -12923.041015625,
        -14064.26171875,
        -15272.6865234375,
        -16550.205078125,
        -17900.365234375,
        -19323.234375,
        -20829.087890625,
        -22428.732421875,
        -24078.6796875,
        -25794.421875,
        -27616.681640625,
        -29523.552734375,
        -31526.6796875,
        -33615.37890625,
        -1300.1785888671875,
        -1544.408203125,
        -1818.6265869140625,
        -2123.14453125,
        -2461.76025390625,
        -2833.765380859375,
        -3242.798828125,
        -3690.364501953125,
        -4175.001953125,
        -4691.755859375,
        -5245.36328125,
        -5838.12158203125,
        0.0,
        0.0,
        0.0,
        0.0,
        0.0,
        0.0
      ],
      [
        -1.0784069299697876,
        -0.0029797893948853016,
        -0.27926212549209595,
        -0.007294569164514542,
        -0.29328224062919617,
        -1.3921500444412231,
        -3.1325008869171143,
        -1.7050248384475708,
        -0.58124840259552,
        -0.012102738954126835,
        -0.18830260634422302,
        0.007873496040701866,
        -0.2114296704530716,
        -0.8350207805633545,
        -1.8481842279434204,
        -0.9354822039604187,
        -0.25740036368370056,
        -0.04534842073917389,
        -0.2258039265871048,
        -0.062235377728939056,
        -2.1221375465393066,
        -2.5173959732055664,
        -3.7000317573547363,
        -5.582125663757324,
        -5.318578243255615,
        -3.536430597305298,
        -1.9297853708267212,
        -0.9345489740371704,
        -0.6058793067932129,
        -0.146383598446846,
        -0.34960249066352844,
        -0.8114233016967773,
        -1.707371711730957,
        -0.7598238587379456,
        -0.22918501496315002,
        -0.033239953219890594,
        -0.1950061023235321,
        -0.054799214005470276,
        -2.1935620307922363,
        -2.282848358154297,
        -3.1349680423736572,
        -4.591516494750977,
        -3.4764244556427,
        -2.3582892417907715,
        -1.4778811931610107,
        -1.4831533432006836,
        -0.3588319420814514,
        -0.1529110223054886,
        -0.3556896150112152,
        -0.8311556577682495,
        -1.4479323625564575,
        -0.688434362411499,
        -0.19916878640651703,
        -0.008575820364058018,
        -0.12969280779361725,
        -0.020294882357120514,
        -0.4931792914867401,
        -1.3444870710372925,
        -0.3052852749824524,
        -0.3302680253982544,
        -0.3270927667617798,
        -0.3040449619293213,
        -8.358257293701172,
        -10.361543655395508,
        -0.2943406403064728,
        -0.35444116592407227,
        -0.3548335134983063,
        -0.3428567349910736,
        -0.28985795378685,
        0.017532512545585632,
        -0.3175608813762665,
        -3.546243190765381,
        -3.5678324699401855,
        -4.6690592765808105,
        -4.735045909881592,
        -2.9815995693206787,
        -1.4981906414031982,
        -0.5429338812828064,
        -0.30034464597702026,
        -0.09209349751472473,
        -0.3162032961845398,
        -0.7736063599586487,
        -1.355326771736145,
        -0.286627858877182,
        -0.9119306802749634,
        -2.4671051502227783,
        -4.9177327156066895,
        -7.653054714202881,
        -10.680437088012695
      ]
    ],
    "heads": [
      "matpes_r2scan",
      "mp_pbe_refit_add",
      "spice_wB97M",
      "oc20_usemppbe",
      "omol",
      "omat_pbe"
    ],
    "cutoff": 6.0,
    "num_interactions": 2,
    "num_radial_basis": 10,
    "radial_type": "bessel",
    "num_polynomial_cutoff": 5,
    "interactions": [
      {
        "node_feats_irreps": "512x0e",
        "edge_attrs_irreps": "1x0e+1x1o+1x2e+1x3o",
        "edge_feats_irreps": "10x0e",
        "target_irreps": "512x0e+512x1o+512x2e+512x3o",
        "hidden_irreps": "512x0e+512x1o",
        "radial_MLP": [
          64,
          64,
          64
        ],
        "avg_num_neighbors": 30.0
      },
      {
        "node_feats_irreps": "512x0e+512x1o",
        "edge_attrs_irreps": "1x0e+1x1o+1x2e+1x3o",
        "edge_feats_irreps": "10x0e",
        "target_irreps": "512x0e+512x1o+512x2e+512x3o",
        "hidden_irreps": "512x0e",
        "radial_MLP": [
          64,
          64,
          64
        ],
        "avg_num_neighbors": 30.0
      }
    ],
    "hidden_irreps": "512x0e+512x1o",
    "MLP_irreps": "16x0e",
    "correlation": 3,
    "gate": "silu",
    "avg_num_neighbors": 30.0,
    "products": [
      {
        "irreps_out": "512x0e+512x1o",
        "linear_out": 2048,
        "contractions": [
          {
            "path_count": 23
          },
          {
            "path_count": 51
          }
        ]
      },
      {
        "irreps_out": "512x0e",
        "linear_out": 512,
        "contractions": [
          {
            "path_count": 23
          }
        ]
      }
    ],
    "readouts": [
      {},
      {
        "hidden_irreps": "96x0e"
      }
    ],
    "scale_shift": {
      "scale": [
        0.7735790610313416,
        0.7735790610313416,
        0.7735790610313416,
        0.7735790610313416,
        0.7735790610313416,
        0.7735790610313416
      ],
      "shift": [
        0.0,
        0.0,
        0.0,
        0.0,
        0.0,
        0.0
      ]
    },
    "max_ell": 3,
    "num_channels": 512,
    "interaction_cls": "RealAgnosticResidualNonLinearInteractionBlock",
    "interaction_cls_first": "RealAgnosticResidualNonLinearInteractionBlock",
    "readout_cls": "NonLinearReadoutBlock",
    "use_agnostic_product": true,
    "use_reduced_cg": false,
    "use_so3": false,
    "use_last_readout_only": false,
    "use_embedding_readout": false,
    "pair_repulsion": true,
    "distance_transform": "Agnesi",
    "edge_irreps": "128x0e+128x1o",
    "radial_MLP": [
      64,
      64,
      64
    ],
    "use_edge_irreps_first": true,
    "apply_cutoff": false
  },
  "head": "matpes_r2scan",
  "notes": "config extracted via mace.tools.scripts_utils.extract_config_mace_model; rebuild not guaranteed | exported state_dict+manifest from nn.Module; not self-checked | config replaced with model.json exported from raw nn.Module | config synced to model.json"
}